{"actual": [[0.8], [0.8], [0.8], [0.8], [0.8], [0.8], [0.4], [0.8], [0.8], [0.4], [0.8], [0.8], [0.8], [0.8], [0.8], [0.8], [0.8], [0.8], [0.8], [0.8], [0.4], [0.8], [0.8], [0.4], [0.8], [0.8], [0.8], [0.8], [0.8], [0.8], [0.4], [0.8], [0.8], [0.8], [1.0], [1.0], [0.8], [0.8], [0.4], [0.8], [1.0], [1.0], [0.8], [0.8], [0.8], [0.4], [1.0], [0.8], [1.0], [1.0], [1.0], [1.0], [1.0], [0.8], [0.8], [0.8], [0.8], [0.8], [0.8], [0.8], [1.0], [0.4], [1.0], [1.0], [0.8], [0.8], [0.8], [0.4], [0.4], [0.8], [0.8], [0.8], [0.8], [0.8], [0.8], [0.8], [0.8], [0.8], [0.8], [0.8], [1.0], [1.0], [0.8], [0.4], [0.8], [0.8], [0.8], [1.0], [1.0], [0.8], [0.4], [0.8], [0.8], [0.8], [0.8], [1.0], [1.0], [0.8], [0.8], [0.8], [0.4], [1.0], [1.0], [1.0], [1.0], [0.8], [0.8], [0.4], [0.8], [0.8], [1.0], [0.8], [1.0], [1.0], [0.8], [0.8], [1.0], [1.0], [1.0], [1.0], [0.8], [0.8], [1.0], [1.0], [1.0], [1.0], [0.8], [1.0], [1.0], [1.0], [1.0], [0.8], [1.0], [1.0], [1.0], [0.4], [0.4], [0.4], [0.8], [0.8], [0.8], [0.8], [0.8], [0.8], [0.8], [1.0], [1.0], [1.0], [1.0], [0.8], [0.8], [0.8], [0.8], [0.4], [0.8], [0.4], [0.8], [0.8], [0.4], [1.0], [1.0], [0.8], [0.8], [0.4], [0.8], [0.4], [0.8], [0.8], [1.0], [1.0], [1.0], [0.4], [0.8], [0.8], [1.0], [0.8], [0.8], [1.0], [1.0], [1.0], [1.0], [0.8], [0.8], [0.8], [1.0], [1.0], [0.4], [0.4], [1.0], [1.0], [1.0], [1.0], [0.4], [0.8], [0.8], [1.0], [1.0], [1.0], [1.0], [0.8], [0.4], [0.8], [1.0], [1.0], [0.4], [1.0], [1.0], [0.8], [0.4], [0.4], [0.8], [0.8], [0.8], [0.4], [0.4], [0.8], [0.8], [0.8], [1.0], [1.0], [0.8], [1.0], [1.0], [0.8], [1.0], [1.0], [1.0], [1.0], [0.4], [0.8], [0.8], [0.8], [0.8], [0.4], [0.8], [1.0], [0.8], [1.0], [1.0], [0.8], [0.8], [0.4], [0.4], [0.8], [0.8], [1.0], [1.0], [0.8], [1.0], [1.0], [0.8], [0.8], [0.8], [1.0], [1.0], [0.4], [0.2], [0.8], [0.8], [0.8], [0.4], [0.8], [0.4], [0.8], [0.8], [0.8], [0.8], [0.8], [0.8], [1.0], [1.0], [0.8], [0.4], [0.8], [0.8], [0.8], [1.0], [1.0], [1.0], [1.0], [0.4], [0.8], [0.8], [1.0], [0.8], [0.8], [0.8], [0.8], [0.8], [0.8], [1.0], [0.4], [0.8], [0.8], [0.8], [1.0], [1.0], [0.8], [0.4], [0.8], [0.8], [0.8], [0.8], [1.0], [0.8], [0.8], [0.4], [0.8], [1.0], [0.4], [0.8], [0.8], [0.8], [0.8], [0.4], [0.8], [1.0], [0.8], [0.8], [0.8], [1.0], [0.8], [0.8], [1.0], [0.4], [1.0], [0.8], [0.8], [0.8], [0.8], [0.8], [1.0], [0.8], [1.0], [0.4], [0.4], [1.0], [0.8], [1.0], [0.8], [0.8], [0.4], [0.8], [1.0], [0.8], [0.8], [0.8], [0.8], [1.0], [1.0], [0.8], [0.8], [1.0], [0.8], [0.8], [0.4], [0.8], [0.8], [0.8], [0.8], [0.8], [0.4], [0.8], [1.0], [0.4], [0.8], [0.8], [0.8], [0.8], [0.8], [0.8], [1.0], [0.4], [0.8], [0.8], [1.0], [1.0], [0.8], [0.8], [1.0], [0.8], [0.8], [0.8], [0.8], [0.4], [0.8], [0.8], [1.0], [1.0], [0.4], [1.0], [0.8], [1.0], [0.8], [1.0], [0.8], [0.8], [0.8], [1.0], [0.8], [1.0], [0.8], [0.8], [1.0], [0.8], [1.0], [0.8], [0.8], [1.0], [1.0], [0.8], [0.8], [0.8], [1.0], [1.0], [0.8], [1.0], [0.8], [0.4], [0.8], [1.0]], "word_weights": [0.43518682794455293, 0.3993132786695317, 0.3748750117635256, 0.36135238010327264, 0.3571419237294867, 0.3511583934368667, 0.3219848211590597, 0.30523166392060536, 0.3028318840140696, 0.28910957669119935, 0.2763469873795645, 0.2722000887465648, 0.25657566904640866, 0.24989437234299725, 0.24781798291907098, 0.24675467622821806, 0.2390809227232576, 0.23212965080464137, 0.22355909551513806, 0.22135265217576522, 0.21460780538256002, 0.2127889354084635, 0.21196264262842232, 0.2023259652839773, 0.20037407740303392, 0.1921869947140196, 0.19158133767966842, 0.19042515899865448, 0.18946268374378272, 0.18886235499753187, 0.18773895381736572, 0.18715659511404603, 0.18652257043853257, 0.18591442253478765, 0.1849733325135214, 0.1847676049914171, 0.1810320278233602, 0.17777033850539153, 0.17707771508033948, 0.1761545198203202, 0.17304831370874713, 0.17201625483938665, 0.17200473529076934, 0.17105800397945037, 0.16777042732372233, 0.16682903506010638, 0.1668036965378088, 0.1662892818801117, 0.1646868906067587, 0.15710700483587342, 0.1562232765261693, 0.15574905179561627, 0.1537004124409053, 0.15255657498934166, 0.14982313117787766, 0.14933543797580334, 0.14890646190480847, 0.14709127441233988, 0.14618139873621086, 0.1459380875676331, 0.14321870207324625, 0.14315154626682666, 0.13617821687395457, 0.1361750340466283, 0.13590752346700127, 0.13454689000224107, 0.13438724486632825, 0.1339535169988047, 0.1336823462944082, 0.13251630010805088, 0.13238999684238836, 0.13171493662464756, 0.13135660282342967, 0.13115160393132655, 0.12984731746598036, 0.1285001898219254, 0.12742295552962052, 0.12699384612968315, 0.12686361143647523, 0.12657503180427981, 0.1264556549350644, 0.1246454896258464, 0.12120614978699273, 0.11968300193632918, 0.11908091956146614, 0.11820722443131393, 0.11751883203715915, 0.11743149828657297, 0.11709526984800636, 0.11634870080758405, 0.1146811675903258, 0.11353496007042582, 0.11324947050375994, 0.11104755053439246, 0.11073315610506454, 0.10959185215595792, 0.10936074389776183, 0.1085703097419838, 0.10808256174763384, 0.10798379256553421, 0.10698602910895794, 0.10573913307422471, 0.10529465867174491, 0.10470200302992208, 0.10427346133791075, 0.10371290649094948, 0.10273169263715869, 0.10124128955387024, 0.10117561632697947, 0.10027227252125273, 0.09978739026260748, 0.09964718430629833, 0.09914300469358235, 0.09829275618605514, 0.09829006652079138, 0.09652019621752701, 0.09576273485005837, 0.09437784214637279, 0.09372238195237367, 0.09354714699401795, 0.09299396014995591, 0.09222466511601679, 0.09155762390922914, 0.09077926848587958, 0.09043963707280449, 0.09012995826683073, 0.0884910709220665, 0.08610934792378971, 0.08578930207337963, 0.08396938004138506, 0.0838143904565501, 0.08336540761095772, 0.08261966701699056, 0.08215952682721168, 0.08194423876021902, 0.08191831388207572, 0.0816203674039377, 0.08072985734224818, 0.07875926564378657, 0.07864909188758333, 0.0785803217837097, 0.07770145162169953, 0.07666770247583331, 0.07657579545720922, 0.0761888586859978, 0.07580513255005458, 0.07535683045498898, 0.07524311242986015, 0.07513002469256495, 0.07395786509194283, 0.07362929083441591, 0.07332239680024646, 0.07278243363285931, 0.07177300248334977, 0.07036976855168299, 0.07031797116761807, 0.07017462890753506, 0.06902920156975817, 0.06892080229889681, 0.06887551198350429, 0.06882872257758833, 0.06851837411072013, 0.0681962728777347, 0.06621263370055919, 0.06560840187065188, 0.0651535140379451, 0.0644946852369479, 0.06409725718505002, 0.06393217926470282, 0.0632567015424297, 0.06309376897878366, 0.06303218061807273, 0.06302949496924892, 0.06301617974276519, 0.06287767903580832, 0.062450274364473826, 0.061755388458982, 0.06155221274002535, 0.06153461382743278, 0.06142752717083084, 0.06142647039459565, 0.06060214670296865, 0.060555386580595644, 0.060553317022488826, 0.06047785303682045, 0.06007216676926295, 0.05845813758114595, 0.05827431601466997, 0.057909536791324386, 0.057460906863518284, 0.05729679821795768, 0.0572568813372691, 0.05699483315657287, 0.05689035806131266, 0.05683469066261715, 0.05679695883980517, 0.0564304724863728, 0.056098079793198946, 0.055929590021462326, 0.05488908227705107, 0.05460728062112962, 0.053111541235203466, 0.05266865054028075, 0.052629872388745, 0.0525292956527976, 0.05235406983249387, 0.05211503955633786, 0.05179278141733382, 0.05057434676393839, 0.0501480034148651, 0.04846163668743522, 0.04817542135827942, 0.04752991874284146, 0.04718781778154176, 0.04716531940199762, 0.046429410921353095, 0.045462465922194564, 0.04531249380291757, 0.04480664140793033, 0.04434324824586905, 0.0443239642794176, 0.04373389636100971, 0.04349568620672497, 0.04314472942330182, 0.04291444755907074, 0.042847959629466435, 0.04254524607531492, 0.04211428617060473, 0.04199708352531495, 0.040558363279427856, 0.04029871505405995, 0.04023434380490088, 0.040167870921330125, 0.04011192286523505, 0.03982270550034124, 0.039598151336149294, 0.039594153279888335, 0.03958341062285899, 0.03957001834055119, 0.039412794207799765, 0.03908835865284443, 0.0387016625900909, 0.038269751373346705, 0.03793469275736414, 0.03791889236579345, 0.03778210872911503, 0.0374646953422569, 0.03723728349173866, 0.03689191587839791, 0.03684376096586734, 0.03672640822454528, 0.03609511555841445, 0.035942240418736685, 0.035504587761696044, 0.03539443692174816, 0.034424337808728875, 0.03441324860491954, 0.03393934000352082, 0.03380651638490733, 0.03380494758987169, 0.033778415360358305, 0.03357413273767249, 0.0334027999034566, 0.033198558413356484, 0.03311559829942005, 0.0327765527972922, 0.032731920318322394, 0.03273026967306728, 0.032494987247054206, 0.031934482962380314, 0.03176331454321003, 0.03175721822206415, 0.031082641673402165, 0.03102243315250021, 0.03078277752511486, 0.030497863648910623, 0.03047656120332772, 0.030262380418399112, 0.030016975856305885, 0.029925895265596605, 0.02992507736532501, 0.029885555232485768, 0.02987260228416993, 0.029612237662482766, 0.029313975872146097, 0.029253819354942638, 0.029147261613297067, 0.028865510091705234, 0.028451869224385463, 0.028180578756769582, 0.028024673761836094, 0.028004740788421793, 0.02793799767279687, 0.027914049868219524, 0.027894034971320727, 0.02755792031907663, 0.027530479832494844, 0.027194442065857468, 0.027187455762583388, 0.026917933379292956, 0.026765022113718166, 0.026609418110096202, 0.02656988044428048, 0.02587640347435565, 0.025742109983657124, 0.025487347788447186, 0.025442984898226786, 0.0253614485178633, 0.025292598466595484, 0.025260642093533587, 0.02499742156171582, 0.02488737460624494, 0.02482836831115681, 0.024584943259939807, 0.02446224993391142, 0.024301745231638566, 0.0240793876650417, 0.023811614515370866, 0.02329489230558525, 0.023059780207469162, 0.02293641133276301, 0.022700909640214456, 0.02233067838398314, 0.022313848247319867, 0.022185230431523026, 0.02210038990907425, 0.02185045720001106, 0.021631602694584185, 0.02158698145047525, 0.021131565027555893, 0.020734864198486202, 0.020620377358980833, 0.02058125776918708, 0.020504740232773225, 0.020194409612290454, 0.020072738282294597, 0.019827903712994078, 0.019698300273966934, 0.01968709774272088, 0.01913362322974296, 0.0184479349364487, 0.0184400670788584, 0.017970594599152824, 0.01785000185267369, 0.017840409408577507, 0.017637318806458017, 0.017613816645508637, 0.01731024771022802, 0.017240232394410075, 0.017008693531253206, 0.017006952012251293, 0.016793155974466876, 0.016736035980820543, 0.016592087602584408, 0.016540026774840365, 0.016369577853864968, 0.016329302331764925, 0.016129987571208954, 0.015806235409090364, 0.01573507515352048, 0.015597175611744155, 0.015563279914827493, 0.015356407256856401, 0.015265759940115314, 0.015170944026541585, 0.015086989682590427, 0.015044864303577975, 0.01487712221788332, 0.01480027488981795, 0.014785311312358487, 0.014733238505085839, 0.014657804743520715, 0.014578100127113513, 0.014030175072620868, 0.014019192382036508, 0.013971196937820517, 0.013728853967943952, 0.013373433446975645, 0.013276141989534699, 0.013160054573654007, 0.01305990846497182, 0.01288829204343812, 0.012858710170777428, 0.012762175070925981, 0.01272980671368885, 0.012533448987740113, 0.012153753424838045, 0.011773221599655912, 0.011689489277108178, 0.011592907955730637, 0.0109871227678355, 0.010814364078696426, 0.010777164318168036, 0.010464774268611676, 0.010269541907138626, 0.010224290304430448, 0.010188967274072999, 0.010168368684369607, 0.010059486670415767, 0.009946763136554945, 0.009925923102263038, 0.009858358137080523, 0.009707439213134456, 0.00970528836406986, 0.009646338897817429, 0.009581390478625877, 0.009468567245746448, 0.009453791800141581, 0.009423655025366833, 0.009108148672655109, 0.008951415022835032, 0.008922847527521791, 0.008461328312556476, 0.007750400362425183, 0.007363975611260796, 0.007203738882301691, 0.007075265684283826, 0.006913191518891593, 0.006715869974340468, 0.006306001433302297, 0.006240135419868123, 0.00618691597192006, 0.006081791492660633, 0.005992771924906969, 0.005945162487325679, 0.005595195411403286, 0.005584353658419465, 0.005560553485101189, 0.005216555011620901, 0.005081462083411304, 0.0049392180383944365, 0.0047495677643922506, 0.004691666943102845, 0.004581168944884493, 0.004544636025510344, 0.004423949357271424, 0.004352611359359828, 0.004144278918384612, 0.003968280320982503, 0.00388686203649517, 0.003650657386625882, 0.003389755452200236, 0.0033147958010229066, 0.0032355179073742255, 0.003181425970769359, 0.0030331088590836663, 0.0030052820312305144, 0.0029859851823594006, 0.0027901987935444804, 0.002742275951402828, 0.002734353456685509, 0.002427590935920461, 0.0023778997274680217, 0.0021419482410546327, 0.0020601821930835047, 0.0018197481806228636, 0.0016643441621489775, 0.0015650062105700144, 0.001525596945346398, 0.0014638933279730957, 0.0013399108809806996, 0.0011910274828427006, 0.0011475475758254464, 0.0010684625059465516, 0.0007156541962052305, 0.00041171750031680727, 0.00039831275196324135, 0.0003614006366331507, 0.00023137273497088985, 5.125193071187507e-05, -2.999602647755451e-05, -0.00024566849253633945, -0.00034551569059565126, -0.00041398516313949797, -0.0005191504896295171, -0.0006374495610848974, -0.0008836976625784208, -0.000991586009284653, -0.0011072974052883018, -0.0012027091200061363, -0.001291843590584883, -0.0013146682573239796, -0.0013788169051491613, -0.0013890311270319988, -0.0014384268311720693, -0.0015399545202314444, -0.0015796174840824219, -0.0017909311479696436, -0.0020765361288819107, -0.002095451714849632, -0.0022195832007730516, -0.002409452521598311, -0.002585933941083148, -0.0025917666275403046, -0.0026167571899867246, -0.0026529454842346566, -0.002813660546923086, -0.0030160763654786212, -0.003552931742580864, -0.0035943527646860544, -0.0036405239714313634, -0.003763424087544689, -0.0038563139772741354, -0.0040601114351243184, -0.004190478633884923, -0.004338663548313466, -0.00459288643452891, -0.0047395338372188504, -0.005179743941862882, -0.00522196606230604, -0.005383859933733954, -0.005737898729616879, -0.006206351829065534, -0.006791870029393243, -0.0072446564070786385, -0.007359632444285455, -0.007489470367722116, -0.007716489841361996, -0.0077954282270806035, -0.00783383008799068, -0.007865410280090093, -0.00797290052986191, -0.00798387092873529, -0.008000123909157426, -0.008431842312870523, -0.008952164539275324, -0.009002767252352183, -0.009097756640381073, -0.009287180085127604, -0.009310167120747646, -0.009376929751569408, -0.00944069337478925, -0.009467367324111402, -0.009619788154480582, -0.009829100123703137, -0.009981033412828301, -0.010007866099776478, -0.010470450003297138, -0.010615693573560438, -0.010631305230631794, -0.011043348808984443, -0.011053344079945182, -0.01121180998233436, -0.011363922245619999, -0.011481267006650744, -0.01156630370269071, -0.011637371861827627, -0.01210684853411992, -0.012132985068871194, -0.01220665500164952, -0.01225789191583903, -0.012535652490991938, -0.012737329995723815, -0.012761276191452517, -0.012779139573578444, -0.012850212486805054, -0.012922249403683497, -0.013246370595414454, -0.01336987591405749, -0.013388989022004897, -0.013525184393575751, -0.0136949698970488, -0.014211812308959508, -0.01455469668596384, -0.014570394305143028, -0.014652258200507617, -0.014777987413323567, -0.014934001853294281, -0.015112844936118348, -0.015187737677872943, -0.01531891712527881, -0.015384771390847115, -0.015410929153059054, -0.015599587450837967, -0.01565413080329497, -0.01569613223253633, -0.016012880605082436, -0.016192352535831928, -0.016310335698005666, -0.01649956994353716, -0.017240592754649123, -0.017296738923243828, -0.017418998745638733, -0.017605109676697237, -0.0178176829422647, -0.01816485948439486, -0.018321576907576874, -0.018439222667082155, -0.018896398526446586, -0.018919289287052426, -0.019143969389273065, -0.019354616951075418, -0.019418127384391557, -0.019671214308416264, -0.0198185374967639, -0.02000677429627604, -0.020201453437553866, -0.02026569283396158, -0.02049756090233085, -0.020530705375677166, -0.02071142497984744, -0.020729851891693223, -0.020856673504788308, -0.020876919102000915, -0.021133708646888176, -0.021181384585684887, -0.02139636289270707, -0.021415948278787147, -0.021963952399020978, -0.02252625725332969, -0.0225302952668507, -0.022566408813430826, -0.022584388082117907, -0.022620353161440763, -0.022720533106434047, -0.022936597015134372, -0.023017801631441508, -0.023065853158557338, -0.023265777875263446, -0.02340800368297833, -0.02343950435560351, -0.023441119337729164, -0.02379391279039148, -0.024030949716119108, -0.024435321940064956, -0.0249829124085794, -0.02505474204271049, -0.02531993939436394, -0.025410285503151782, -0.025934709256124948, -0.027227315815761696, -0.027261028291750027, -0.0274780164096445, -0.027531600637795042, -0.027601874654134165, -0.027710446350839975, -0.027738309035425436, -0.02780994462003459, -0.028182074641884672, -0.028197624937374897, -0.028333550101914705, -0.02900038347448133, -0.02900536522730796, -0.02908389154429052, -0.02931932675961494, -0.029538047556384152, -0.0300753282330012, -0.030123453637798118, -0.03016363670493647, -0.030281895627082788, -0.030631719630050076, -0.030672462842132993, -0.03074305535088116, -0.030807352943166756, -0.03129989213652838, -0.03143233608608278, -0.031483448785917995, -0.03158391345270808, -0.031701254086047945, -0.031707967902619955, -0.031884227167717855, -0.03202967007037862, -0.03215897881777378, -0.032386133176753366, -0.032631930977605784, -0.03279625762987828, -0.03279794350498666, -0.03280354321508676, -0.03303273841235772, -0.033259693828658184, -0.0336375743161427, -0.033866439670583164, -0.033894596587127915, -0.03391013543723603, -0.034121147141528675, -0.03427588727042137, -0.03439602077701625, -0.034475748524782156, -0.03496113048657739, -0.03525802221598443, -0.03536729083284973, -0.035447452582149264, -0.03563299077883849, -0.03575066476129403, -0.036059553611203395, -0.03607842275903692, -0.03628691634514575, -0.03673472209719675, -0.03716106241805388, -0.03739203219196089, -0.03739683951286241, -0.037807565979797286, -0.038152289394509216, -0.03828961207384584, -0.038296111339508686, -0.03832379820091121, -0.038393434564650934, -0.03867579523327871, -0.03872253257239822, -0.03943350940257217, -0.03959884950606184, -0.040316568627742244, -0.04051332664921949, -0.040671618901072154, -0.04072382529239144, -0.04088418134520474, -0.04104025648430702, -0.04136782001175986, -0.04140041128199375, -0.04157559067756313, -0.04170988791934743, -0.0417145019445225, -0.04228612139214586, -0.04260683243681674, -0.04275044624641261, -0.042779252636927105, -0.04302559896892916, -0.04372397617207192, -0.04397217494476388, -0.044091817488436595, -0.044401343545296276, -0.04445631271437157, -0.044560153381732935, -0.04462570586376037, -0.0447083383241457, -0.044731481005220085, -0.04490288150564085, -0.044931682106835735, -0.0449760813341647, -0.04514763976678675, -0.04549258206426386, -0.045512193983120064, -0.045593706194216065, -0.045661239105615224, -0.045851313049998434, -0.0459215017064193, -0.046078273476193456, -0.046415246632135296, -0.04689695921815964, -0.04789628527950531, -0.04859116660006117, -0.04860356045076029, -0.048776393922560765, -0.04898483379620486, -0.04931683248750196, -0.049325671969806584, -0.04960218667132996, -0.04989944213905427, -0.050519275364076535, -0.05153076487687181, -0.051577976400637174, -0.05202266683387913, -0.05207153053279666, -0.05264977238858806, -0.052677254597542314, -0.05297244284827255, -0.0530014753753453, -0.05316687278301576, -0.053182236572913016, -0.053211009424454864, -0.053332875741663156, -0.05340337419939439, -0.05368834908026886, -0.05462069666406294, -0.05549747487845918, -0.055896875752107146, -0.05596499880337614, -0.056122338011967435, -0.05657461301697379, -0.05659398812061499, -0.056699942889836756, -0.05677618339233235, -0.05688288770136465, -0.05737781365803645, -0.05749640661166202, -0.05759095105045283, -0.05800118017114343, -0.05890823819422483, -0.05942789969045329, -0.059704793177953804, -0.05970904614790536, -0.05973527942143323, -0.05996234929060926, -0.060603798123716864, -0.06060535499469213, -0.06069375353821257, -0.061569021159144144, -0.06246226434829365, -0.06254737089705777, -0.06265545052275173, -0.06274671661275888, -0.0627468564311164, -0.06300609227424825, -0.06314166672031107, -0.063567763169698, -0.06362549759972069, -0.06399410011557236, -0.06402023609773531, -0.06461718077020391, -0.06475824488434206, -0.06559625300522184, -0.06577784011344999, -0.06603618984444569, -0.0667624241712009, -0.06679011114100186, -0.06697050312051017, -0.06752783095616423, -0.06787465631577225, -0.06991667357550299, -0.07001776165469414, -0.07065106656555753, -0.07166095083917566, -0.07209617494780494, -0.07209951088696719, -0.07311037817956531, -0.07330579864929694, -0.07330614805427224, -0.07341527318076987, -0.07406707442227592, -0.07411614139825978, -0.07411630827413315, -0.07415874329015769, -0.07554987120352266, -0.07640738857807562, -0.07704069733284957, -0.07718859342305252, -0.07745660530554921, -0.07790706153387157, -0.07794641663814206, -0.07807765166238553, -0.07872924911136508, -0.07978802130491568, -0.0798421246210398, -0.07996745813814496, -0.08040754179422746, -0.08108910979676598, -0.08205291091618454, -0.08221157450413298, -0.08235547985214037, -0.08267398160394857, -0.08280947393969873, -0.08324424707722651, -0.0840350430691518, -0.08443722724203506, -0.08451472715149635, -0.08467671054205549, -0.08586392564498639, -0.08593190943949293, -0.08662714855940411, -0.0867645650102858, -0.0877684795815703, -0.08802200720170861, -0.08854859965535257, -0.08916177057222155, -0.08919462120034043, -0.08930959490191676, -0.08972429152306544, -0.09022676431460377, -0.09100987424253082, -0.09176260312622009, -0.09195862240908641, -0.09200598903819496, -0.09222176859082169, -0.09251973076114121, -0.09288066582803217, -0.09332721026879123, -0.09359110281405073, -0.09467573521448226, -0.09536704795397112, -0.0960889236843362, -0.09641783822681345, -0.09674034202739783, -0.09766734359827314, -0.09800289359380547, -0.09991478985988105, -0.10005689106589659, -0.1005895701617103, -0.10064092501747626, -0.10136527254337017, -0.10142091715193066, -0.1015708756100978, -0.10158072432910423, -0.10166948919940731, -0.1021072072152416, -0.10265698957878429, -0.10343674824054067, -0.10418758853296976, -0.10502811423901172, -0.10563463387941957, -0.1074984425080709, -0.10879316807113934, -0.11003105358386264, -0.11143127379760462, -0.11184726394316384, -0.11253697078635422, -0.11473371220059655, -0.1149707609273944, -0.11642096133775617, -0.11717093696425536, -0.11799833215495822, -0.11801220878826567, -0.11954507018495746, -0.11989042717654899, -0.12081949353857159, -0.12097359810462154, -0.12180552941251746, -0.12264987026186888, -0.1228851807356359, -0.1242919961810675, -0.12794318684477587, -0.12898320079619324, -0.13039131494783043, -0.13134121582870345, -0.1313922922464497, -0.13152883052852016, -0.1317166502910985, -0.13388670498772146, -0.13388848900252964, -0.13439538688069685, -0.1356808809761863, -0.13671665108638462, -0.13851790006652684, -0.14099395917697544, -0.14229773719989056, -0.1432331821249602, -0.1434096644846748, -0.14435460145236956, -0.1467428762202974, -0.14738629741115195, -0.14775985836500252, -0.1539132764915034, -0.15448864274398416, -0.1561564420824985, -0.15617302726511778, -0.15704919443201662, -0.1577092517970204, -0.15784970150396258, -0.1580841866558733, -0.1583329500186188, -0.15907181665943726, -0.15956685319105518, -0.15959144232838604, -0.16242262626361711, -0.16295374238898072, -0.16385567810733395, -0.1639486664344186, -0.16465568733300182, -0.17349124987558673, -0.1738189873701053, -0.17397206733822126, -0.17654092659645604, -0.17782475755424845, -0.17783476657294875, -0.17790463728989026, -0.17962822269642215, -0.18185790489704382, -0.1835033230200235, -0.1890526199934478, -0.19170534370828113, -0.19618479477988887, -0.19948470999327628, -0.2002024633878216, -0.20375868261958138, -0.2058652640934594, -0.2104668420561662, -0.21082007102397696, -0.220306325126805, -0.22399921421083283, -0.2250927397532997, -0.2304827267336061, -0.23141249261477628, -0.23457549636302905, -0.2370531599925399, -0.2411426255063799, -0.24242564944005984, -0.25010630492662805, -0.2646170504673615, -0.31055823991273923, -0.31361415100494433, -0.32752891051400673, -0.3387718833187943, -0.36587131910008297, -0.3678999173493368, -0.42079469431074135, -0.5570221801340054], "texts": [["\"Great video, but the BMW adds.", "one show the first V8 M3.", "I see this video and the add., it's contradiction.", "Maybe its show how they sponsor TED.com, but they don't see whats inside the website, only seeming that they care, and not really giving a hoot.", "The world will never be perfect, but there's no excuse to make it better.\""], ["What a cool presentation!", "And it's so funny if you keep digging deep into all that information, and suddenly you find out curious and interesting things about what we know about Chinese food."], ["\"I have read Dr. Servan-Schreiber's book \"\"Anti-Cancer\"\", A new Way of Life.", "It is excellent and confirms what many integrated medical physicians are advocating.", "The research is thorough and easy enough for anyone to understand.", "Food, Inc. video is also eye opening as to the role of the government and the biggest food corporations in America.", "Although we have choices, those choices are limited by these corporations and the FDA.\""], ["I think Dan's approach simplifies a fact that many in the business world may come to realize.", "Let's hope,however, there is no incentive to reward them.", "I enjoyed the talk."], ["Thank you, Allen Majorovic, you answered my question ... which was similar to John's.", "I'll head to berkeley now."], ["Although I didn't get all the meaning of the talk cause of my poor english listening, this talk does inspire me in some extent.", "It is a good presentation."], ["\"Please google YouTube addendum 8-16.", "It's only 8 minutes long and it will help clarify  why Specter's assumption's are wrong.\""], ["This was a very interesting presentation.", "Who would think that E- mails do not matter, that phone- calls are never answered, but that letters can reach a politician and have some influence?", "Who would think that handwriting with all its disorder would be more successful at reaching the politician than the perfection which can be done with the machine?", "Again this is the kind of inside information which can be given only by those who actually work and know what goes on in the area."], ["\"I think this is a very positive approach to creativity.", "The idea also underlines that we are all capable of creativity (not only a chosen few) if we just \"\"show up\"\" and do our best.\""], ["\"FAT IS NOT THE ENEMY.", "There is mounting evidence for this, why can't Dr. Ornish see the light?", "Eat less calories OR do more exercise?", "WRONG!", "What about hormonal changes that effect metabolism?", "Everything we eat promotes a hormonal response.", "Eating fat promotes a hormonal response that causes us to BURN FAT!\""], ["\"I love learning the obscure history behind such a seemingly benign subject.", "For adventure seeking comic fans - you need to check out One Piece/Bleach.\""], ["\"As a Chinese, I understand the woman's speech.", "Eastern culture (Confucianism, Buddhism), there has always been to remove the \"\"self\"\" concept, which means to minimize the self-concept, and even as one with nature, yoga, spirituality, meditation and other methods is to achieve Nirvana realm.", "The lady from the perspective of a scientist interpretation of the most peaceful of all spiritual experience,  is expressed in science can explain and also failed to explain part of that is the human spirit.\""], ["\"Really interesting idea.", "We hear a lot about how bad bio-fuels are, but Juan is saying we just aren't using them correctly.", "He made a convincing argument for it, too.", "I also really like his idea to tax oil.", "I can see why it may seem unfair, but in the long run the benefits are worth it.\""], ["\"Thanks Adora for your insights.", "Very thoughtful.", "Is it just me, or does she not come across as more credible than one former leader of the most powerful nation on earth?", "That's scary.\""], ["\"Fascinating, it reminds me of the internet of things videos and how more more information can be used to discover seemingly unrelated things.", "Information is power.", "Knowing people is power.", "I think it is funny wanting to be the \"\"unpopular\"\" node when the flu analogy is used and then wanting to be the \"\"popular\"\" central node when it is gossip\""], ["i love that it isn't about the objects themselves but the ideas and connections they inspire.wow.", "his coal demonstration made me think about what it takes to get people (me) to understand things.", "would we use and price resources differently if messages were conveyed this way."], ["\"With great design, great content, and a solid business model newspapers can still thrive in this world today.", "Newspapers can go into so much more detail than a Television program.\""], ["New TO TED.", "A wonderful Technology, which makes the child to recover from his disabilities and paves the way for their future.. A small request.. Can  i get the details where this diagnosis is done in India."], ["\"Is this the first ever TED Talk with a Medical Hip-Hop segment??", "Glad to see Dave having some fun.", "Bravo!\""], ["\"I agree with Carl.", "For me what's always more interesting is the way someone gets to the point of unveiling such things.", "Not every person is in a position to do what Taryn appears to have done.", "A very well presented talk :)\""], ["Science and Religion are not sisters.", "Anyone who believes this does not fully understand either of them"], ["\"you could have soundtracks for movies played in different languages in holiday resorts... or at meetings with many countries etc etc higher volume for people hard of hearing?", "endless possibilities, pretty good invention i say ;)\""], ["Thanks for the talk and translation work.", "is it me, or there is a sync problem with the subtitles and the speech (at least in spanish and english).", "How can this be fixed.", "Thanks again.", "Regards."], ["I was listening up until he says Apartheid.", "Being from South Africa, I find it absolutely insulting to compare the plight of African-Americans to what we had to suffer for so long here.", "Shame on you."], ["I can totally see this is an awesome/cool/fun/beautiful idea, but when you comes down to small footprints and other practical features, I cannot see how this can out weight a robot on a wheel.", "Keep in mind you have to deuce the size of the controlling components you have right now into comparable size and complexity."], ["Funny.", "Intelligent.", "Common sense.", "Willingness to speak!", "What a gem."], ["Funny and thought provoking!", "A good one to share with my business team."], ["\"I have to say that this woman is quite talented and reminds me a great deal of Michael Hedges and Alex Degrassi.", "They both have a unique blend of experimentation with music.", "In no way does she strike me as a \"\"Guitar God\"\" but among other woman guitarists, I could say  YES!", "If she actually invents a style of guitar playing other than what is out there, then yes, maybe she will be a god.", "Until then, she is in my opinion just a very talented musician!\""], ["I wish Gates had talked about how his foundation works and how he uses his talent and money to accomplish specific goals.", "The mosquito release was a great bit of theater!"], ["I think it depends on the person of what the definition of beauty.", "No matter if its natural, artistic, or imaginary beauty it does depend on whats done well but also of what the persons personal definition of the word beauty and the way they look at it."], ["\"This is old news, unfortunately.", "We are on the 4th type of fish to make \"\"fish sticks\"\" because we over fished the other species.", "Humans are inconsiderate and really don't deserve to have this wonderful planet - unless we change radically.", "The Earth/Universe will do what they do, purge and restart at some point.", "With capitalism driving the planet, looks like we'll drive ourselves to extinction by just doing what we do.\""], ["\"Survival of the smilingest (with apologies to Darwin and Dawkins).", "Smiles are disarming, perhaps, at times, literally so.", "Consider the evolutionary advantage of a wanderer who smiles.", "This wanderer bumps into a strange tribe and smiles disarmingly; the menacing weapons are dropped to the ground, everybody smiles together, new genes mingle, and hey presto, genetic diversity expands.", "And who ever says they\u2019re looking for a mate with no sense of humor?", "So yeah, keep smiling\""], ["a wonderful, solutions-based talk.", "Bravo Mr. Sala!"], ["I loved what bob says the first person to get happy is because he made someone or some being happy...", "I think it is very interesting that Buddah perform special effects..", "It makes Buddah sound like a magician.", "I don't want the person I worship to be a magician.", "Agree, however, that when we are no longer locked in yourself, you can see the true reality of life."], ["\"Great work Mr.Neil Pasricha, most of the people these days are living under the clouds of sadness created by minute mistakes and problems in their life...", "Many people are unable to see the happiness and true meaning of our beautiful life beyond these clouds.", "And for such people your 3 A's will bring lot of difference in their life... Really an AWESOME talk by you :)\""], ["\"Great work Mr.Neil Pasricha, most of the people these days are living under the clouds of sadness created by minute mistakes and problems in their life...", "Many people are unable to see the happiness and true meaning of our beautiful life beyond these clouds.", "And for such people your 3 A's will bring lot of difference in their life... Really an AWESOME talk by you :)\""], ["\"When I was 12, I got my first game console, a Game Boy.", "I made up my mind then that I would never regret playing games.", "Ten years later, I'm glad to have stayed true to that.", "Maybe I didn't achieve everything I could have, but I think I made the right economical decision because the fun and appreciation gave the best opportunity cost.", "Life is a pretty fun game for those who can make the most of it.\""], ["Genies circling!", "Good topic, thanks.", "She looked bit sprung up, as if she was rehearsing in front of a mirror."], ["\"Pig is the worst animal, don't ever it's meat...", "I don't know about you all,,but there are so many facts about bad of pig....\""], ["He has a very inspirational story.", "He is a good man to share his past and help children in Africa.", "He has a great gift of putting his story into music to express himself.", "He is very thoughtful to think about the lives of other children and trying to stop them from being a war child."], ["Very brilliant and witty, as well as great improvisation.", "I enjoyed this one a lot."], ["Very brilliant and witty, as well as great improvisation.", "I enjoyed this one a lot."], ["\"Interesting ideas, that's why I  told my daughter about it.", "But I was attracted by the wrong German:\"\"Kindern wirkliche Mathematik mit Hilfe von Computern lehren\"\" takes are interesting.", "Computers don't make interesting mistakes.", "For those who should be bothered about ist: Correct ist: \"\"Kinder wirkliche Mathematik mit Hilfe von Computern lehren\"\"\""], ["\"Wow, Mike is right on with his comments.", "I have been so wrong on so many things by following the wrong stuff in my life.", "Can I have a do over?\""], ["It's a noble idea, but I think its a utopia that when a man's self interest begins to take over the utopia begins to fall.", "But I would at least try it."], ["its fact that america breeds terrorism, they created fundamental groups when they helped iraq gas and kill kurds.", "When we look at the war on oil, americas actions tripled funding and terrorist numbers to these groups.", "I believe the state has a lot to answer"], ["\"Great video.", "This amazing fish certainly makes this video worth watching.", "The narrator's wonderful comedic style is a bonus.\""], ["When you combine the revelations in this presentation with genome research you REALLY get a glimpse of what the future holds.", "Enlightening and full of hope.", "Thanks Janine."], ["Kiran, wow what an idea.", "Would love to replicate it here in Pakistan.", "Great work."], ["Kiran, wow what an idea.", "Would love to replicate it here in Pakistan.", "Great work."], ["\"I seriously need to stop watching these in the office, My workmates must think I'm going through some crisis tearing up at work each morning :-).", "A very personal example of how good storytelling connects us, I wanted to hear more.", "Thank you for a wonderful talk Andrew.\""], ["Brilliant.", "Brought tears to my eyes."], ["Brilliant.", "Brought tears to my eyes."], ["Useful communication tool.", "Especially trying to express content quickly through visual impact."], ["I think English mania is good.", "Coz English is a common language all over world.", "So, we should study english.", "In Japan english classes, writing is the main activity.", "We don't have many learning opportunities to write English.", "If we are spoken to in English by foreigners.", "We often don't know how to answer in English.", "It troubles me very much.", "And Japan English classes begin in the sixth grade at elementary school.", "I wish the study method in Japan wouldn't be more efficient."], ["This is truly a wonderful experience as best as any of the classics  reflecting the raw humanity  and the unmistakable inhumanity  of man to man as only the cinema could have etched it deep into our conscience...pity not the African but humanity itself.", "Good job Newton..."], ["I would love to have her come and talk to the mayor of Detroit.", "We could really use a program like this here.", "Also love her passion."], ["\"Pictures are not be able to speak to us directly but in its own different way to mention about life, culture, animal, human being ... That's just to interpret the world, based on creator's intention.", "The way Taryn does is awesome.", "Photograph is not just pictures, with a big change in mind, great effort to bring the truth to the world so that everybody could understand and motivate them to do a lot of things.", "Fantastic!\""], ["\"As someone who has just recently started to experiment with canvas as a way to work the left brain away from the day to day, I find this very inspiring.", "I've seen Mr. Shannon's work in museums and galleries but it is great to see him talk about his work.", "I love this new \"\"TED in the Field\"\" series.", "Hopefully TED takes us all on the journey to the workspaces of our favorite speakers.", "I personally would love to see where Hans Roling works out of.\""], ["lol i thought it was kinda neat.", "I rather liked the pants / dance."], ["She is amazing, how good she speaks and expresses her mind.", "Inspiring women."], ["\"Lol Europe is ignorant.... sleep walking into oblivion.", "couldn\u2019t help but to laugh at that.\""], ["Ben skied the equivalent of 31 marathons in a row!Wow.", "That is just amazing.", "Just like Diana Nyad's story, Ben's first attempt was not a failure but a lesson in perseverance."], ["Ben skied the equivalent of 31 marathons in a row!Wow.", "That is just amazing.", "Just like Diana Nyad's story, Ben's first attempt was not a failure but a lesson in perseverance."], ["Pranab, and witnessed his Sixthsence device.", "He really was working device.", "If you want to see the device then you can contact Pranab.", "He's the smartest guy."], ["\"natural forms arise, abide and dissolve.", "consuming objects that do otherwise (including iphones and \"\"refillable\"\" plastic bottles) doesn't get to the root of the issue.", "You cant really \"\"buy yourself green\"\", which is what advertisers are smartly offering as the solution.", "My solution: what you are doing now IS the future.", "It is YOUR responsibility.\""], ["\"Such interesting correlation, there is a saying that I am not sure who said it but it goes, \"\"genius is looking at something everyone else has and seeing something that no one else sees.", "Strange to correlate these two systems but well put together in the end..\""], ["\"i made the choice to STAY in the workforce and sit at the table and not leave, still treated as a MEAN, AGGRESSIVE, etc etc.", "Surrounded by less experienced, less intelligent males who are ASSERTIVE and Not MEAN.", "Part of the problem I am surrounded by other females who are form cultures where the women is subservient to the male.", "This is increasing rapidly within this country and hence back to square one.\""], ["If this had been done to american soldiers there would be no muslims left on the planet.", "I\u2019ve seen most of those pictures before but there were some ones in there that i hadn\u2019t seen they are pretty messed up.", "the worst thing is that a lot those men were innocent and the US still holds the moral high ground.", "disgusting.", "and i agree with the bad barrel theory but the apples still have to take responsibility otherwise no1 does."], ["I absolutely love watching his guy talking!", "However, I am not sure that integration in the world economy is the answer....", "Surely, if I can produce some of value and I am going to pay enough to get value into my life sure, but if I am going to get exploited and the only thing I get out my work in tiredness and starving wages... well, I'd be better off out of it."], ["\"Generate IDEAS that SERVE others something of value and that you have PASSION for.", "PUSH yourself and WORK hard on your idea.", "PERSIST through failure, criticism, rejection, pressure.", "With enough practice, you will become GOOD.", "Really FOCUS on this plan and you will have success!\""], ["\"It is so inspiring to hear real possible solutions - at the same time, I wonder if it is like so many of the other wonderful things that I've heard about that I keep waiting to see make an appearance in daily life.", "And it is refreshing to hear someone not afraid to make a judgment call in terms of 'right' and 'wrong' and feel his restrained and so deeply channeled sense of outrage.", "I love this man and this talk.\""], ["The idea is great but how does it work?", "what in the paper allows it to dignose diseases?"], ["\"I absolutely agree with her.", "I'm concerned too.", "You know guys, life is unique, it's almost unlikely that we exist at all.", "This is really obvious statement but I'm rather saying it to myself..", "Despite from that we know many things, we're still in sleeping mode.\""], ["Praise the open tuning!", "What a moment for Usman."], ["\"Shout-out to Dan Dennett:  Yo, dude, nice talk!", "The meme \"\"good without God becomes zero\"\" is henceforth unanimously declared, by the entire TED community, to be null and void.", "Okay, said meme is now officially kaput.", "No one can use it anymore.\""], ["As Amiee noted, adversity is so a part of life.", "Adversity and how we look at it reminds me of failure, which many try so hard to avoid, but it's so a part of life.", "I carry a list of quotes with me on failure, that are quotes from hundreds of well known people.", "They all talk about failure as not being a weakness and  an end, but a true part of educations, strength, growing and living.", "I think it's time to start that list of adversity quotes, and put Aimees as first on the list."], ["Wow...", "I know some very smart and well-educated people who can't even perform basic arithmetic without breaking our XL.", "This guy is good."], ["I'm glad I pushed through my initial skepticism.", "Certainly not a pleasant talk, but she speaks from her core.", "She is connected mostly through pain and suffering.", "Seems to be a common method of connection, though only one of many."], ["I'm a senior student of electronic engineering and I didn't know what area to specialize, but recently Bioengineering has waked up in me a great interest, and this talk just helped me to decide.", "#Inspiring"], ["Right to the point.Wow!", "Loved it."], ["Right to the point.Wow!", "Loved it."], ["This takes the greatness of Lego's one step further by bringing the blocks to life.", "In a world where global problems are increasing in size and solutions are becoming harder to come by; It's critically important to have young and energetic engineers.", "Little bits can serve as that toy that kids can not only have fun with, but also gets them interested in engineering, especially at a young age where their creativity and curiosity knows no bounds."], ["\"As comedy, it wasn't particularly funny.", "Boring, actually.", "As far as making a point...not sure it hit that mark either.", "I have 3 children, and I can assure you that \"\"a talk\"\" doesn't actually happen.", "It is a series of observances and a gradual accumulation of knowledge and inquiry.", "And it certainly starts well before the age of 8.\""], ["\"This man reminds me so much of my grandfather.", "He was a West Point graduate and career Air Force officer.Growing up in hippy land I was taught to see him as some sort of monster.", "It was years before I understood his insistence that he spent his life \"\"fighting for peace\"\" as anything other than oxymoronic propaganda.", "I am so glad TED gave this man a moment to share a worldview that differs from the normal TED fare.\""], ["That's great, all they need to do now is learn to build a magnetic field on the moon and sync it with the magnetic field of the earth.", "But I could be confused."], ["\"I have been interested in the bilateral brain since Roger Sperry publicized his findings...however Jill Bolte Taylor's video opened up new insight into the potentials of our right brain particularly in that it is the home of our spiritual awareness.", "Her video inspired me to collect all my prior written papers on this subject and post them on a blog called \"\"Right Brain Therapy\"\" at sidhere.com...I find there is great interest recently in this topic following Dr.Taylor's book and video.\""], ["What an amazing talk!", "The differences in function of the left and right brains make it possible for a person to have a full experience of life.", "I couldn't help but see it as a hologram of how men and women are together.", "I believe the differences between men and women are perfectly complementary...that those differences, if embraced, give men and women access to living full lives doing what they do best and love the most."], ["What an amazing talk!", "The differences in function of the left and right brains make it possible for a person to have a full experience of life.", "I couldn't help but see it as a hologram of how men and women are together.", "I believe the differences between men and women are perfectly complementary...that those differences, if embraced, give men and women access to living full lives doing what they do best and love the most."], ["I'm a dancer, this is so inspiring.", "I did well at school and always felt pressured to follow an academic path and go to Uni.", "I'm in my first year of a degree in dance at a polytech and I love it so much, nothing could be more right for me.", "How sad is it that if it weren't for the doctor there might be a little girl who never got to dance?", "This is so sad.. :("], ["I believe this is the answer, From my little knowledge on the subject I always thought that is would be done by harnessing fusion from the Sun.", "Fusion not solar panels.", "The talk was much to short and incomplete.", "i would like to hear more on this subject."], ["\"Good presentation, opens some interesting questions on longevity.", "Curious if Rachel has visited the 5000 year old Bristle-cone Pines in the White Mountains in California, i have camped there and you can \"\"feel\"\" the wisdom in the trees.\""], ["It is difficult for us to ask for what we need because most of us have been taught, including me, that it's better to give than to receive and not to call attention to ourselves.", "When we are always giving and not receiving this may eventually lead to resentment, bitterness and depletes our energy or desire to give any further.", "Thank you for this simple but profound message!"], ["I agree with Diana's views on the easy access of information.", "Everything is online.", "Students are already taking online classes across the nation and making good use of that information.", "Also, I completely agree that a standardized test score should not determine your knowledge.", "I do believe a change from the traditional education system is needed."], ["\"This talk speaks directly to my heart since I often feel that my creativity is destroying me.", "I believe in this principle, that whatever has great creative potential has an equally destructive potential.", "It's the concept of \"\"Garbage in, Garbage grows\"\", a result of the brain's synergetic functioning that allows both creativity and suicidal tendencies.", "In any case, I feel Gilbert has given me some very good advice and I'll try it whenever I feel low again.\""], ["This is an amazing epiphany.", "Thank you for filling in the blanks on fungi and their past, present, and potential future roles."], ["This is an amazing epiphany.", "Thank you for filling in the blanks on fungi and their past, present, and potential future roles."], ["Without exception I always tremendously enjoy Prof Rosling's talks.", "A true showman, a true intellectual and a true humanitarian."], ["\"it's a roomba for the ocean!", "Love the open hardware idea, let's hope it gets used more than the same idea for 3D printers.\""], ["\"Very good talk.", "I wonder what has been done to try to breed super spiders ?", "spiders with bigger and bigger silk glands...\""], ["\"It's disgusting that social networking sites are collecting what we are doing on the net to make money.", "Whether what they are doing is legal or not doesn't matter,because that is the last thing they should do on this planet as human beings.They will turn out nothing but such animals.\""], ["This was an amazing presentation.", "Sir Ken was funny and inspiring and extremely on point.", "This knowledge needs to get out in front.", "We need to teach or children differently.", "I also recommend a book called Brain Rules by John Medina who stresses much of the same information on how we learn and ways to improve."], ["This was an amazing presentation.", "Sir Ken was funny and inspiring and extremely on point.", "This knowledge needs to get out in front.", "We need to teach or children differently.", "I also recommend a book called Brain Rules by John Medina who stresses much of the same information on how we learn and ways to improve."], ["Just superb!", "Beautiful, well performed!", "Awesome!", "Thank you so much TED for bringing these great people into our attention."], ["Just superb!", "Beautiful, well performed!", "Awesome!", "Thank you so much TED for bringing these great people into our attention."], ["The two images from TED 2007 that will be forever etched in my mind and engraved in my spirit were James Nachtwey's photograph of the amputee with the surfboard (such hope!", ") and Carolyn Porco's solar eclipse of Saturn with Earth as a minute blue speck (such perspective!)"], ["The amazing thing about the brain is that we process everything that surrounds us whether it is apparent to us or not at that moment.", "All information, images and occurrences that James Cameron was involved in during his childhood stayed and transcended into something amazing that so many others can enjoy.", "James Cameron you have inspired and caused an amazing ripple effect that will resonate past the span of our time and mine."], ["Don't we need to know what's going on underneath the surface?", "There must be massive amounts of earth and rock being scraped away.", "What is shown is only from above the water line.", "Would that explain why the glacier appears to be collapsing?", "There's less and less rock to support it."], ["It is amazing how different ways of presenting the same information can change drastically its perception.", "I wonder when will they think of something similar to visually understand savings, insurances, retirements plans, etc."], ["\"I remember seeing a basic cymatics experiment during a physics lecture in high school.", "This talk really brought back the wonder I had when first seeing patterns form.", "There are equally interesting experiments visualizing magnetic wave patterns.", "What is so wonderful about it is that it clearly visualizes the underlying connection between sound, vibration and form.", "It is an area we know fairly little about but could well be a fundamental principle in how matter takes form.\""], ["\"Very interesting, both the video and all the debates/opinions/arguments/whatnot it has seemed to birth on this page.", "The future is exciting indeed, amazing things are to come.\""], ["\"The balcony...Great idea, and could be applied for your personal anger management, go out to the balcony and look at the big picture.", "Now regarding the peace in the middle east, it wont happen simply because the current Israeli administration isn't willing to return 97% of the lands it won during the 5 wars, in fact they want more, they want to send the remaining Palestinian away to new countries and have a 100% Jewish state, with them its always a win/lose situation.\""], ["I really like Kiran Bir Sethi.", "She has a very inspiring presence.", "I wonder what it felt like to be in the room with her.", "I think that she is doing something powerful.", "I like the fact that she took a word with a negative connotation and turned it around.", "Her formula of: aware, enable, and empower is similar to the ADKAR change management model.", "It also mimics the ABCs of curriculum design which emphasizes: think, feel and do (Affective, Behavioral, Cognitive).", "I enjoyed her presentation."], ["I really like Kiran Bir Sethi.", "She has a very inspiring presence.", "I wonder what it felt like to be in the room with her.", "I think that she is doing something powerful.", "I like the fact that she took a word with a negative connotation and turned it around.", "Her formula of: aware, enable, and empower is similar to the ADKAR change management model.", "It also mimics the ABCs of curriculum design which emphasizes: think, feel and do (Affective, Behavioral, Cognitive).", "I enjoyed her presentation."], ["\"Nerdwatching is one of my favorite pastimes but I have not seen this species before.", "I see science nerd with a tad of emo and a healthy dose of Anime, but there is something I am missing and cant put my finger on.", "Any nerd spotters out there have any ideas?", "He should fill the pool with superfluid helium and have a little nanobot jump in!", "In case its not clear, I loved this talk!\""], ["Maajid, I am very interested to hear more about your movement and your ideas.", "Is there a way to get to know more about this?"], ["Right on the point!", "Extremely courageous and  inspiring talk.", "Hope more people can be aware of this huge issue and become involved."], ["Right on the point!", "Extremely courageous and  inspiring talk.", "Hope more people can be aware of this huge issue and become involved."], ["I love this!", "Poetic and beautiful."], ["I love this!", "Poetic and beautiful."], ["Great video, I find the psychology of advertising interesting.", "id like to see one similar for visuals if anyone knows of one?"], ["Thanks to ted.com, and technology of course, we are able to bring about a satisfactory fusion of eastern wisdom and west's logical mind.", "Hopefully, we will also learn soon the true relationship between nature and living beings, and how can we nurture this relationship.", "Jai Ho!"], ["Fascinating!!!", "God's creation are indeed beautiful n amazing!!!"], ["Fascinating!!!", "God's creation are indeed beautiful n amazing!!!"], ["So beautiful !", "Thank you so much, Alanna.", "We live in age of artificial memory with enough place to collect our everything so I believe that our knowledge about the working of human memory will also get better in near future."], ["So beautiful !", "Thank you so much, Alanna.", "We live in age of artificial memory with enough place to collect our everything so I believe that our knowledge about the working of human memory will also get better in near future."], ["\"Phenomenal exposition...", "I always think of Tony as this inspirational leader with a bunch of hype.", "In reality, he's truly living and embracing his vision, and enlarging his pool of co-evangelists.", "You gotta' dig that.", "Totally in harmony with his passions, and it shows.\""], ["\"Brilliant!", "mr. Lee has single handedly raised the bar high when it comes to video-game interaction.", "This goes to show you that a little ingenuity, creativity and versatility can change an entire industry.", "thanks TED for sharing this talk.\""], ["\"Brilliant!", "mr. Lee has single handedly raised the bar high when it comes to video-game interaction.", "This goes to show you that a little ingenuity, creativity and versatility can change an entire industry.", "thanks TED for sharing this talk.\""], ["Brilliant!", "Elif's talk was both cerebral and evocative.", "Although I am only a reader of stories, Elif's description on the importance of storytelling for removing cultural boundaries has inspired me to write one!", "At least attempt to..."], ["Brilliant!", "Elif's talk was both cerebral and evocative.", "Although I am only a reader of stories, Elif's description on the importance of storytelling for removing cultural boundaries has inspired me to write one!", "At least attempt to..."], ["As a Divorce Coach and former Trial Lawyer I can tell you that without hope which is revealed as optimism here we'd have a very disconnected lonely planet.", "Thank you optimism!"], ["She's absolutely adorable!", "A wonderful artist, and very cute as well!"], ["I took a class with one of Anna Deavere Smith's grad school students.", "Her approach to acting is so unique and so amazing."], ["I took a class with one of Anna Deavere Smith's grad school students.", "Her approach to acting is so unique and so amazing."], ["\"Getting carried away a bit - but can't avoid commenting on the words \"\"people like us should be\"\" etc.", "I wonder - I tend to think that people like the Dalai Lama or these Jewish scholars who never see the light of day should be investigating morals more, and telling the world about it.", "I get the feeling that to research morals you need a good heart more than a good brain.", "Maybe TED people have a good brain, but not necessarily a good heart.\""], ["Throw a spear?", "Not wanting to seem ignorant of the message of the speech, but couldn't a baseball do the same thing with less consequences?"], ["Who are you people who can't be playful and happy in your lives?", "This talk is so sad I want to cry.", "Is this really what the world has come to?", "We are not talking about living up to some super human qualities here.", "It's not like you to put on a cape and try to fly.", "jeeeeez."], ["\"Instant favorite from me!", "Stephen Petranek's words ring in my head: \"\"let's speed up that search for an earth-like planet and terraform Mars\"\" (paraphrased from his TED talk).", "I did not know anything about this hopeful mission prior to seeing this video; the only space mission that excites me more is a mission to Europa to see what lies beneath the icy surface.\""], ["\"I am just worried that kids can't understand the beauty of each once they feed on the art-science broth only.", "My solution?", "Teach them the tool of differentiating concepts and the tool to connect concepts.", "They will eventually get it.", "PS: Love this video.", "The video and the comments shows that I'm on the right track on developing my world view.lol\""], ["\"It's incredible what a person can do.", "Trust himself, try to create something in a creative way and finish what he started despite everybody is calling him crazy.", "I wonder if any day i could be just a little like William.", "The video inspired me a lot.", "Thanks.\""], ["unbelievable....!!!", "so...and where i watch the real video about this ted talk???"], ["I really enjoyed his presentation.", "Some might complain of monotony, but I felt his 'non-excitement' as conveying a pursuit of the challenge and not fame.", "His calling is to 'make' possible the impossible and he proves himself on the big stage.", "That said, he has accomplish feats absolutely incredible, props to his discipline of body and mind (and his demure humor)."], ["\"Interesting topic and a very entertaining talk.", "Two points: 1- I am a bit skeptical about the $57 billion annual input figure of the insects to the US economy.", "2- Why don't Europeans eat insects?", "Because they can 'afford' not to.", "And I agree it is this mindset that needs to change.", "I particularly liked the idea of marketing locusts as 'land shrimps' (!).\""], ["\"The talk was a pleasurable forgery.", "I mean representation of Paul\u2019s actual talk.", "Although I have no idea what the actual talk would have been like (though I imagine I would have been sitting in the back row with a poor view of the speaker).", "My pleasure was further enhanced knowing Paul was a Psychologist.", "And I didn\u2019t feel he lost any credibility when he lied and suggested the digital projections were paintings.\""], ["Amazing.", "I had a good education growing up, but I would have loved to have a teacher like that.", "That talk made me want to teach at some point in my life."], ["Amazing.", "I had a good education growing up, but I would have loved to have a teacher like that.", "That talk made me want to teach at some point in my life."], ["\"This is awesome!", "Thank you Neil for sharing.", "It's easy for everybody to tell the story how they were successful doing this or that but when do we hear a story of defeat?", "Not so often, right?", "That is what makes everyones story authentic though.", "And it's why I go along with Carole Schafer's comment about authenticity.", "I found this speech by \"\"accident\"\" but I am forwarding it to my friends.", "Thanks again, Neil, and good luck with your endeavors.", "Kirsten\""], ["\"This is awesome!", "Thank you Neil for sharing.", "It's easy for everybody to tell the story how they were successful doing this or that but when do we hear a story of defeat?", "Not so often, right?", "That is what makes everyones story authentic though.", "And it's why I go along with Carole Schafer's comment about authenticity.", "I found this speech by \"\"accident\"\" but I am forwarding it to my friends.", "Thanks again, Neil, and good luck with your endeavors.", "Kirsten\""], ["\"As a mother of a primary school aged child, I have found that it is not always the \"\"what\"\" but the \"\"how\"\" things are taught in school which is so detrimental to children, particularly young ones.", "Steiner education appears to me to address many of the issues discussed in this talk.", "- ?????\""], ["As a non-American living outside the US her presentation was even more interesting.", "How universal yet still American.", "Fabulous!"], ["I had a similar idea a few months back, but for a different application.", "This talk makes me want to join Micks cause immediately."], ["\"Dial this up into Google: \"\"Nature by Numbers\u201d\u201d.", "Enjoy, G\u201d"], ["Very short sighted.", "The human race needs less people, not more.", "How we do this is the awkward bit."], ["\"Terje Solhoff January 13 2008 notes: \"\"In a way it's like one colony of ants acts as if it was one individual, each ant is a \"\"cell\"\" in the \"\"body\"\" we call ant colony.", "Fascinating.\u201d\u201d.", "This is precisely the model put forth by Douglas Hofstadter in \"\"Goedel, Escher, Bach\"\".", "He called the anthill organism \"\"Aunt Hillary.", "\"\"  This is one of my Desert Island books; I can't recommend it highly enough.\""], ["\"Technology Entertainment Design, why is she here?", "Life is about checks and balances,   I do not need a tumor to reexamine my life.", "I do it all the time.", "It is a feel good story,  I'm just not sure it should be here on TED.\""], ["Unbelievable..What a exciting technology!", "I'm looking forward it.", "But on the other hand, I'm a little afraid that we might get too much information passively, and mechanically if we want it or not."], ["What a wonderful talk.", "Thank you.It is incredible how much our experience is enhanced just by taking a conscious note to listen.", "When we do this, we are able to take note of not just the sounds, but of our complete place that very moment.", "We are able to be present in the realtime and space of that experience.", "When we stop to listen it is incredible how much more we retain about that experience.", "Will an improvement in listening help us to better connect with new acquaintances?"], ["\"He's got a very provincial view of \"\"normal\"\".", "2 gigatons of ice is *not* that unusual - 50-100 years of break-off is not that unusual - especially over the lifespan of those glaciers.", "Does he actually have an analysis of the frequency of iceberg break-offs and their sizes (and the associated \"\"replacement time\"\")?\""], ["Great talk!", "I've read his book, its amazing, this man changed my understanding of the world and made me think deeper.", "I respect him so so much!"], ["Great talk!", "I've read his book, its amazing, this man changed my understanding of the world and made me think deeper.", "I respect him so so much!"], ["English not being my native tongue I had a hard time keeping up with her, talking at breakneck speed like she did.", "Because of that I'd say I missed at least a third of what she was saying.", "But the message and the passion came through loud and clear!", "Great talk."], ["Creative, imaginative, and fun.", "I can imagine psychologists spending countless hours studying people's reactions to these installations."], ["I don't understand how skeptics can agree that 6 billion humans constantly consuming and polluting can have no negative effect on the planet?", "Skeptics, haters, they are all ignorant capitalists.", "Wake up!"], ["Wow, that is cool!", "Maybe this has something to do with child  prodigies.", "I have always wondered about the origin of that sort of thing."], ["\"Sorry, but this is the only TED I couldn't watch all the way through.", "I fast-forwarded, stopped, listened and fast-forwarded again.", "My reaction might also be taboo, but I think this talk belonged on Oprah or The View, not TED.", "I really hope the next presenter doesn't show slides from their vacation.", "I know, I know...there go my +'s\""], ["This is great.", "Once in mass production the price should drop."], ["Thank the universe that Microsoft still does inspiring things.", "Yes, we can complain about a lot of things that MS does, but what kind of world would we live in if the innovations, developments, and financial investments in science and technologies that MS has contributed weren't available?", "I wish I was a kid again, because the WWT would have been exciting to use for my astronomy class as a youngster.", "We live in amazing times."], ["The advance in technology is truly amazing and to be applauded.", "The presentation was also very good.", "The only downside it left me feeling as though I had just watched a sales pitch."], ["The advance in technology is truly amazing and to be applauded.", "The presentation was also very good.", "The only downside it left me feeling as though I had just watched a sales pitch."], ["\"Thank you Doctor, You blow my mind, I\u2019m emailing your video to every one I know.", "We need more people like you.", "Thank you, Mewa Berhane\""], ["For me, there's nothing new in his talk.", "If you've been interested in psychology in general, chances are that you already know what he's saying, but just don't remember much of it.", "But I love the way he represents his ideas to the audience.", "The talk could have been boring and corny if it wasn't for his wits and jokes.", "Nonetheless,  I have to admit that the topic is absolutely worth contemplating as no human is in total control of the foolishness that the brains causes!"], ["\"I agree with him about publishing data about studies or anonymous statistics.", "It is getting problematic when you touch the issue of personal data privacy.", "Facebook for example is already horrible in \"\"protecting\"\" your personal data.\""], ["Good for Chris - he got you talking and thinking!!", "We don't have to agree - but just think how this talk may have loosened up the many who otherwise would remain complacent about so many vexing issues.", "Hooray for Chris!!"], ["This is awesome!", "Just think about what this can do with Africa"], ["I laughed so hard a few times I had to take the computer off my lap to stop if from bouncing around.", "Why he was at TED, I have no clue!", "Brilliant thinking."], ["Although I agree with much of Skerry has said, we must be aware that many third world countries are fishing to survive.", "They would fish more efficiently and less harmfully if they had the means to make that happen.", "However they are literally fishing for food, or at the very least selling their catch for other food.", "It must be a luxury for Skerry to travel the planet photographing sea life while the very people he criticizes are struggling to feed their families.", "Just something to keep in mind."], ["Great chops!", "I love the style (but I loved Michael Hedges too).", "Composition is lacking though.", "Kaki can really play it, but what she plays can't hold my attention yet.", "I'm excited about watching her grow."], ["Great chops!", "I love the style (but I loved Michael Hedges too).", "Composition is lacking though.", "Kaki can really play it, but what she plays can't hold my attention yet.", "I'm excited about watching her grow."], ["The talk was full of wisdom and inspiration.", "Thank you!"], ["The talk was full of wisdom and inspiration.", "Thank you!"], ["\"Although I cannot remember that when I asked this a little bit awkward  question to my mom, what kind of response she had given me.", "Maybe her reflection just like the way Julia was!", "In my opinion, this is an interesting, lovely  talk between parents and child!", "I think the existence of \"\"white lie\"\" is surly to be having sometimes\""], ["\"I foresee several really awesome sci-fi thrillers/horrors (?", ") based on this research.", "Scary stuff.", "But hey, that's progress.\""], ["\"\"\"convergence BUT not sustainable...\"\" Sobering and no doubt true statement but pity he didn't show enough data supporting this statement.", "I hope if he reads this reply he will show us in the future data that points out our predicament with the lack of sustainability in our human affairs.", "All his talks are so darn good.", "I want more.\""], ["Wow Great to know Subtitles are available in 19 different languages!", "*Jokes Apart* Its so beautiful!", "just close your eyes turn it and on Switch on your inner illustrated world so awesome :)"], ["Wow Great to know Subtitles are available in 19 different languages!", "*Jokes Apart* Its so beautiful!", "just close your eyes turn it and on Switch on your inner illustrated world so awesome :)"], ["Dennett lacks understanding on Rick's book and the text it contains.", "Dennett approaches his view from a totally secular view and he has no understanding of faith and what Christianity is all about.", "Surely he can spend his time on more important issues rather than picking away at a book that is written by a man who has seen more of the 'world' than Dennett has and who actually does something instead of just talking about it."], ["\"This is scary indeed.", "No matter how \"\"important\"\" English may seem to be there is no excuse for denying children their childhoods.", "I teach English in Asia but I always have mixed feelings about what I do.", "Children are put under too much stress.", "They don't have enough time to absorb.", "There are too many tests, not enough understanding.", "This will stifle creativity, not generate it.", "There is no need to learn so early.", "Give children more time.", "It is indeed a mania and, like most manias, destructive.\""], ["\"Brilliant talk!", "I know that for myself, I've long associated \"\"conflict\"\" with a negative connotation.", "I really appreciate how this talk shows how facing conflict can be liberating (in many ways)!", "Thank you Margaret Heffernan.:)\""], ["\"Brilliant talk!", "I know that for myself, I've long associated \"\"conflict\"\" with a negative connotation.", "I really appreciate how this talk shows how facing conflict can be liberating (in many ways)!", "Thank you Margaret Heffernan.:)\""], ["My TED crush!", "SO brilliant and funny.", "He continues to motivate me to constantly think about the way I educate children."], ["My TED crush!", "SO brilliant and funny.", "He continues to motivate me to constantly think about the way I educate children."], ["\"Is anyone else glad that he slammed Jeffery Sachs' complete 'ivy ignorance' of the dynamics of poverty and wealth?", "He was needling Bono the whole time.", "Bono, by the way, wrote the introduction writer of Jeffery Sachs' book that no one should ever buy or even mention the name of.", "Bono felt the needle and showed the audacity and arrogance to interrupt the talk.\""], ["Thanks Stew.", "I'm glad you had the words and could arrange them because I couldn't."], ["These 3 young women are amazing and inspiring.", "The one disappointment was the reluctance or inability of institutions of higher learning to participate or assist in their research."], ["Wicked Awesome Dude.", "Wicked Awesome."], ["Wicked Awesome Dude.", "Wicked Awesome."], ["Mr. Devdutt Pattanaik, your talk was outstanding, simply brilliant!", "It has got me thinking over various things.", "Thank you Sir.", "And I would heartily thank TED for spreading all kinds of informative and worthy ideas.", "Its a wonderful platform that I've just discovered!"], ["Mr. Devdutt Pattanaik, your talk was outstanding, simply brilliant!", "It has got me thinking over various things.", "Thank you Sir.", "And I would heartily thank TED for spreading all kinds of informative and worthy ideas.", "Its a wonderful platform that I've just discovered!"], ["Why isn't life worth discussing?", "I guess this is life?", "We all have own one slice of life.", "I admire this idea of being more than arguing with every others standpoint.", "Mr. Warren is so going further than most others by deciding other opinions might matter.", "You remain right to my standards which I hope are constantly changing.."], ["\"I agree with the other comments that these gentlemen are obviously better engineers/innovators than they are public speakers.", "However, this would not be a problem for we were it not for the unconscious manner in which they referred to 'policemen' and 'firemen.", "' Maybe their organization does not involve the contributions of intelligent and skilled people who happen to be female?\""], ["Very humbling.", "We have lost so much in terms of our ability to co-exist with others.", "We have also lost much of our connection with nature.", "It makes me miss my birthplace in North Wales."], ["i expected it was just one of those scientific explanations since she even showed an actual brain but it ended quite gracefully.", "it was not just informative, it was better...amazing!", "truly amazing!"], ["i expected it was just one of those scientific explanations since she even showed an actual brain but it ended quite gracefully.", "it was not just informative, it was better...amazing!", "truly amazing!"], ["\"\"\"It's an incredibly non-materialistic culture where people don't have a lot, but they're incredibly happy.", "\"\" But the interview showed quite the opposite.", "They are not happy at all because of the poverty.\""], ["\"Wonderful talk.", "Bravo!", "Sugata Mitra.", "I was moved to an emotional response, this is just so encouraging.", "I wonder how those kids would react if they surfed onto Dr. Ray Kurzweil's Website, and started talking directly to a computer.", "Before long, a mobile phone will have more processing power than all the computers that existed at the turn of the millennium.", "Dr. Ray calls it \"\"The Singularity\"\".\""], ["\"Wonderful talk.", "Bravo!", "Sugata Mitra.", "I was moved to an emotional response, this is just so encouraging.", "I wonder how those kids would react if they surfed onto Dr. Ray Kurzweil's Website, and started talking directly to a computer.", "Before long, a mobile phone will have more processing power than all the computers that existed at the turn of the millennium.", "Dr. Ray calls it \"\"The Singularity\"\".\""], ["Crazy story.", "I am showing this video to one of my office mates, probably the third time I have seen the video.", "I stop the video to tell my office mate the story of how I found out about TED.com.", "I found out about it from a Cinematographer friend...... wait, I think that is him.", "OMG my friend Marco is the camera guy jumping up and down in the video.", "CRAZY!!"], ["\"Interesting criticisms... Maybe some of the people who saw the first pop up book mumbled something along the lines of \"\"hrmph...", "Kids today don't need books that move, when I was a kid my books did not move...\"\" It isn't just the story that makes us listen in, it is the presentation of it.", "We are multi-sensory beings.", "Try reading a child a picture book but refuse to show them the pictures...\""], ["\"Michael Liberson : \"\"Yeah but if we allow a girl to make a scream bag, then anyone can make anything.....like bombs.", "sorry to make you relapse into nail biting, but this is my biggest fear about this whole thing.", "\"\" what kind of a comment is this!", "you are not only reacting according to your fears, you want others too to act according to them... why would a scream bag remind somebody of a bomb!!!\""], ["\"I like the idea but... All in all this is the same principle as infrared communications but then on all the wavelengths simultaneously.", "The advantage is clearly the high capacity and speed.", "The problem I see are the same as with infrared.", "Your device has to see the transmitting source.", "What if I walk from one room to another.", "And what about outdoors?\""], ["\"I was feeling a bit depressed lately for the same reasons mentioned by Richard.", "Watching this talk was not only inspirational but a personal wake up call.", "Thank you very much for sharing this.", "It really meant a lot for me right now.\""], ["\"Such a marvelous topic to speak about!", "And mad skills of speaking and convincing people, of course.", "I'm so impressed in a most pleasant way.", "There is a rich variety of different examples of people with a God complex.", "It's a pity but Try and Error method is not the most popular way of exploring the Universe.", "Thanks to tim Hatford we have a chance to change our way of life.\""], ["\"I can't believe he didn't refer to \"\"fake real\"\" as \"\"faux real\"\".", "In context, it would've worked (and gotten another laugh, and flowed more easily, verbally.)\""], ["we have certainly come a long way in a very short amount of time.", "I did however think the teleconferencing bit at the end was strange.", "Plastic 3D reproductions of people seems a little excessive."], ["It is a brilliant talk but unfortunately I don\u2019t think that you can solve local hostilities with global solutions.", "You should take each case in its private conditions.", "And I believe that this young man may help too many conflicts to be resolved if he focuses on them deeply."], ["this is something that i have only dreamed about.", "I was so happy after watching this.", "even though i know mainstreaming this technology across the globe is a long way off and it will definitely meet with a lot of criticism from politicians this is an idea that will come to fruition when its most needed."], ["This reminds me of this movie I saw earlier today called cyber wars on Netflix...for free.", "The identity hackers wore something similar to influence brain wave patterns.", "Wetware is a difficult process.", "Good luck."], ["great job!", "James............avatar and your work on fusion tech camera is awesome..........imagination is the starting point of science and risk is the way to invention...........cool..........."], ["great job!", "James............avatar and your work on fusion tech camera is awesome..........imagination is the starting point of science and risk is the way to invention...........cool..........."], ["\"I really enjoyed his manic discourse on evolution and really loved how he had the courage to realize AND state that his profession, in the greater scale of \"\"life\"\" is ridiculous.", "His enthusiasm, as well, is something we should all elevate ourselves to.\""], ["Thanks for the humanity.", "It is a beautiful work, how did you find the funds to accomplish such a big work?", "No words to thank you &amp; everyone that have participate to this transformation."], ["Thanks for the humanity.", "It is a beautiful work, how did you find the funds to accomplish such a big work?", "No words to thank you &amp; everyone that have participate to this transformation."], ["Great talk.", "The recording of the lying mother was the most horrifying video I've seen in a while."], ["This was really awesome TED Talk.", "This is the future technology."], ["This was really awesome TED Talk.", "This is the future technology."], ["What an amazing woman.", "I love how she talks about getting these kids interested.", "They want to be interested, someone just needs to help them.", "The world should embrace individuality."], ["What an amazing woman.", "I love how she talks about getting these kids interested.", "They want to be interested, someone just needs to help them.", "The world should embrace individuality."], ["\"Diana, when you say the word 'failure' I replace it in my head with the word 'iterate.", "' Students who produce something haven't failed, they've produced version 1.0.", "It's not going to be perfect, but the idea is to learn from it and do better next time, to improve, which I think is really what you're saying.", "We are never good the first time we try something.", "Only practice can make us better.\""], ["That is a really impressive machine!", "I have a question about the type of control strategy used in this project, I can only guess it is some sort of model based design, but which method is used?", "MPC, LQG or something completely different?"], ["\"Eckhart Tolle says, \"\"Non-resistance, non-judgement, and non-attachment are the three aspects of true enlightenment.", "\"\"   The concepts spoken of in this talk are truly enlightened.", "To allow a work to come to you without resistance, without judging it or yourself, and then releasing it into the world without attachments to it or its outcomes, is the essence of enlightened living.", "May we ALL aspire to such greatness!\""], ["It's great to remember that, to allow creativity to occur, part of our brains actually have to stop contributing.", "The same is true in group dynamics.", "Sometimes, we may have to ask those with a natural tendency to avoid risk or point out pitfalls to be silent so those creative voices with forward thinking out-of-the-box ideas can be heard and considered.", "I loved this presentation...particularly the rap!"], ["\"Fun, the experience for him and that between the lines it was told that we should explore the universe to survive.", "Reading the books of Hawking at this moment (and also Dawkins, funny because they're pronounced the same in Dutch, sorry for the extra info), made me search for more theories and ideas about the universe.", "I like the ideas and facts about Europa (the moon of Saturnus).", "It's good to see he is promoting his ideas.", "Now our job to pick them up and act!\""], ["I have studied this stuff for years, and I know how to critically think.", "Unfortunately in spite of what naysayers may say, Paddy hits the nail on the head.", "The worse part of it all, is that REAL freedom and democracy is going bye-bye.", "That is the bottom line in the mix of all this shit, and people are kept ignorant to it by design.", "And if you want to understand 'why',..as always,..YA GOTTA FOLLOW THE MONEY."], ["\"I find it amazing that the DNA of the shark can be extracted from the slime externally (aka: just by scraping)... How do they know the slime is not actually a compost of algae from other sea-organisms/species?", "(Side note: I love \"\"Simon's shark slime sampling system\"\" - catchy branding-alliteration at it's best!)\""], ["Utterly awesome.", "Could this be used for a project like The Dead Sea Scrolls?"], ["Hopefully a lot more people see this, you really need to get as much support as you can.", "You have really been through a lot and everybody needs to hear you out"], ["That was a wonderful talk.", "I wish I was such a great storyteller."], ["That was a wonderful talk.", "I wish I was such a great storyteller."], ["\"This spoke to my procrastination.", "It's one thing when you're waiting for inspiration to come, but when it's there and you don't get around to what it is you're supposed to be doing, it's terrible.", "This is the genius that is saying \"\"I've done my part and showed up\"\"...  Now I must deliver.", "Thanks for this perspective.\""], ["i wonder if they have donation funds or a way for the public to easily donate to this cause.", "kinda like what kiva did for micro-loans...this would totally be something i'd support."], ["\"The government just measures its goal and puts us into the concept we could be well treated by the tangible results it would make.", "What's worse is that we can barely feel any differences without numbers the survey shows us.", "So we are the first who actually move forward for appreciating the intangible value.\""], ["did we forget to mention a thorium thermal breeder reactor?", "yes we did."], ["Interesting, and I am sure it will have many applications in education.", "I am somewhat dismayed at how many seem to think juggling sampled sounds is music.", "Still I can appreciate that they are on to something with this technology and the young child who wanted to stack them is really pointing the way backward and forward."], ["the way she describe the need, obligation (as she put it) to animate and humanize the abandon spaces, in order to preserve this places, is so much more than mere documentation, which is what we usually see.", "great work."], ["Superb talk!", "Exciting and reflections inspiring.", "Images are always a powerful mean of communication but Mrs. Kidron has the ability of storytelling.", "Kudos!"], ["Superb talk!", "Exciting and reflections inspiring.", "Images are always a powerful mean of communication but Mrs. Kidron has the ability of storytelling.", "Kudos!"], ["This is so simple and beautiful.", "Let's do it.", "What are we afraid of?"], ["\"Ananda, thank you so very much for sharing your story, and your wonderful art with us.", "You are an inspiration.\""], ["\"Ananda, thank you so very much for sharing your story, and your wonderful art with us.", "You are an inspiration.\""], ["So fun seeing all these great projects made with Arduino!", "Inspires me to dust mine off and make something new with it.", "Though probably not a Twitter-fied chair!  "], ["He has a nice topic to discuss but my sound system is not good.", "I will be back later"], ["\"Many of the rules in the Old Testament deal with survival, in a  very primitive understanding of it.", "The rules were to keep them alive and make society better.", "I can totally see and agree with the concept of the old testament discussing primitive psychology.\""], ["amazing talk - from a really passionate man!", "also spot Stefan Sagmeister in the audience."], ["amazing talk - from a really passionate man!", "also spot Stefan Sagmeister in the audience."], ["Steve Gluck, why do we need to hunt?", "We have already pushed the wildlife to the edges of the earth.", "They don\u2019t have room or numbers and we are losing them.", "We have plenty of food available to us already and have no need to mindlessly kill more animals.", "Killing for sport and not need is sick."], ["\"Venter takes credit for inventing the plant!", "Is there no end to this guy's hubris?", "Blue-green algae are already efficient at performing these processes -- what, exactly, is new about this?", "Boring, derivative, pompous.", "I have nothing against engineering microbes for specialty chemical synthesis and medical applications, but trying to pass this technology off as 'sustainable' energy generation -- crazy.", "Dial up William McDonough or Amory Lovins for the good news.\""], ["\"Dhruva: Although I mostly agree with your point on the 'incompleteness' of the description of intelligence, if you replace 'prediction' by 'what if...?", "' or something similar, that'll stress the evaluation of the prediction concept in human terms, a process which is much more elaborated than the deductive 'if-then-ergo' reduction.", "Cheers!\""], ["Wonderfully Witty and Mysteriously Intricate.", "Thank you for sharing your genius work and presenting it with humor and metaphorical comparisons that make this highly complicated topic easier to understand.", "Please give another talk in the near future with additional findings, especially if they have resonate with the curing of genetic diseases or understanding our evolution."], ["\"Powerful words.", "Though I would add; a life with intent, lived by design - informed by an enlightened and compassionate mind.", "(Selfish intent lived by design produced the Enron scandal)\""], ["\"listen.", "i'm reading all of these comments and i think it should be put plain and simple...", "Torture is bad.", "Torturing 12 year old children and younger/ older is bad.", "Torturing pregnant women into miscarriage is bad.", "Torturing innocent people is bad.", "why is this hard to comprehend for some of you?", "I support Karen Tse's efforts even if it saves only a few people and at the very least gets the awareness out there.\""], ["Egypt after the revolution ...", "Such as Paradise on Earth"], ["I think Jane McGonical is definitely idealizing gaming here.", "Maybe she hasn't spend so much time on online games as she claims after all, or how does she neglect the whole phenomena of game cheating?", "And people do cheat a lot!", "Probably a lot more than they would in the real world, where the consequences are much more severe."], ["How did I not know about this day before?", "I'm so glad I watched this talk."], ["\"His last comments were intriguing.", "Is the Milo AI a single timeshared mind that will learn from all the millions of players?", "I'm guessing they are not quite doing that, but it's an interesting idea to \"\"crowd source\"\" the training of an AI (as opposed to efforts like the cycl project, to systematically teach an AI).\""], ["Great talk.", "Anyone know if these are poisonous plants???"], ["I'm just happy to know that this idea of battery swap station I had about 2 years ago is considered by people in position to actually change things!", "Way to go, I want an electric car!"], ["While I agree that a sufficient amount of sleep is important, it has also been my experience that the most explosively creative periods of my life occur simultaneously with bouts of energetic insomnia.", "I would like to know if it is the pineal gland (the third eye) that accomplishes this and if so, how I can have more such experiences."], ["\"Environmental solutions as intelligent and engaging as the technologies which manufactured the problem?", "Refreshingly modern and yet somewhat embarrassing in our late recognition we should be harnessing current social trends to get out the message.", "I'd like to see this sort of thinking replace the \"\"ballad of the wounded activist\"\" we hear on every station.", "Environmental Judo at its best!\""], ["\"This talk is just so amazing.", "I am so blown away, I love it.", "I share it with all my facebook people, so various can be part of this.", "Beautiful talk.", "\"\"Pour resources into reservoirs of security.", "\"\"  Freaking awesome.", "\"\"And if my heart is singing...\"\" and \"\"she, is definitely, on her way..\"\"\""], ["\"This talk is just so amazing.", "I am so blown away, I love it.", "I share it with all my facebook people, so various can be part of this.", "Beautiful talk.", "\"\"Pour resources into reservoirs of security.", "\"\"  Freaking awesome.", "\"\"And if my heart is singing...\"\" and \"\"she, is definitely, on her way..\"\"\""], ["\"A wonderful and timely presentation.", "Yet, I feel sadness that this lecture even needs to be featured.", "Why have we, the global society 'we' , chosen to forget and/or neglect the basic moral reasoning that our grand-parents, parent and mentors taught us?", "thinking.....just like TED wants us to do.\""], ["So we should encourage every suicide bomber to tell us about his or her goal to blow themselves up?", "Makes sense to me!", "Please tell everyone you can that you are going to blow yourself up.", "Post it on the internet!", "make a phone call.", "Take out an ad!", "also tell us you are going to convert the whole world to your brand of Islam or Christianity or whatever dogma you have in mind.Eric"], ["My first comment was written half way through your talk... typical ADD.", "But I wanted to submit another comment because of the message I received at the end.", "I now understand the depth of your effort, WOW.", "I feel strangely connected to this, most of my life I have preached the idea that communication can solve most problems, but you articulated a new horizon broadening perspective, my sincerest Thank You!"], ["\"Following up on my previous comment concerning \"\"saccades.", "\"\" I tried, at work, how I'd said I thought it was done- worked like a charm.\""], ["I started new challenge since Saturday: No carbonated soft drinks for 30 days!", "So far so good."], ["\"This was very inspiring!", "i think this is one of the most interesting talks i have ever heard!", "if someone knows some websites or TED talks like this, i would be happy if someone would link them to me.\""], ["\"This was very inspiring!", "i think this is one of the most interesting talks i have ever heard!", "if someone knows some websites or TED talks like this, i would be happy if someone would link them to me.\""], ["Awesome talk!!!!!!", "OMG I still have tears in my eyes!!!!!", "It is so inspirational.", "Today I was wondering if I should continue on the entrepreneurial path because sometimes things don't go exactly as planned...", "However, this talk has given me the courage to go on.", "It helped me embrace my inner child and made me realize I can make it too!", "Thanks, Cameron"], ["Awesome talk!!!!!!", "OMG I still have tears in my eyes!!!!!", "It is so inspirational.", "Today I was wondering if I should continue on the entrepreneurial path because sometimes things don't go exactly as planned...", "However, this talk has given me the courage to go on.", "It helped me embrace my inner child and made me realize I can make it too!", "Thanks, Cameron"], ["I entirely disagree with his last statement about everyone's responsibility to make these decisions.", "He said its not up to the ethicists, or the scientists.", "Who else to make such important decisions?", "The ones who still believe the earth is less than 10,000 years old?", "The ones who have no idea how strong the evidence for evolution is?", "Yes those are the people who should be making decisions about scientific innovation, the ones who are absolutely ignorant of it."], ["\"an excellent demo of how perception is deceived and how our deception is perceived.", "The theory can take some understanding but i find these simple models to go part way into helping me understand.\""], ["\"I am glad this talk went up so soon, while the movie \"\"Temple Grandin\"\" is still currently showing on HBO, and I'd encourage everyone to watch them both.", "Temple Grandin was one of those TED speakers with presence and approachability as an attendee at the conference itself, and whose story is one of those you'll find yourself connecting at many levels.\""], ["So happy to see this posted!", "We will definitely be showing this clip at our CIty2.0 event on 10.13!", "We will also be infusing several of her ideas into the interactive part of our program.", "Thank you!", "(TEDxHonolulu)"], ["\"Lovely talk!", "Not too long ago I was a part of the school-system that you mention quite a bit of times during your talk, and I have to agree with you when it comes to group projects and team work assignments being used too often.", "In my opinion, it has a way of killing creativity amongst those who do not dare to speak among the members of the group due to whatever reasons they have.\""], ["\"Re: many bashing comments If the man does good science, which he obviously has here, I think people shouldn't worry too much about his motivations.", "Had he not seen divine inspiration behind the birth process, he might not have tried as hard.", "Using science to unveil the creator's beauty was the principal drive in Newton's and his generations' work.", "It may seem old-fashioned to us now, but it was effective.\""], ["I thought it was nice to hear from a person who struggles with a disability, but keeps a good attitude about it.", "I feel the same adoration for Michael J.", "Fox in his issues."], ["I'm so glad to hear science on what I try to explain to friends and family members.", "As a gamer I will regret my time spent playing games maybe as much as other will regret anything they do to let loose and have fun."], ["\"Thank you very much, for the beauty, the concepts, the enthusiasm, the show of technology and ultimately for making me smile.", "People like you make the world a better place.", "Love the quick way of talking as well ;-).\""], ["He plays with such a sense of ease, such fluidity.", "It's fantastic."], ["It's very rare that I can truly believe everything will turn out alright.", "Thank you for giving me that feeling.", "425.000, 500.000, 1.000.000!", "My eyes well up with tears of relief and gratitude.", "Thank you, thank you, thank you!"], ["\"Why is it so widely spread that people have only to say philosophy once to be flagged \"\"philosophic\"\"?", "She actually said we should step back from that subject object thing and allow multiple understandings of the world to be present and equally valid and contradicting each other at the same time.", "This is wrong on many levels.", "_please_ move this talk to comedy if it isn't already and _remove_ it from the \"\"philosophy\"\" category.\""], ["\"Mr. Harris, how do you make a project like \"\"We feel fine\"\" and not spend an eternity reading all of that, let alone creating \"\"Universe\"\" which will truly be even more impossible to unravel every article?", "Man, I thought I couldn't get out of the chair with Youtube, Facebook, and Google, and then this fellow invents couple more info-distribution boards.", "Wow...\""], ["Interesting talk.", "Synesthesia is explained in the book THE TELL TALE BRAIN by Dr. Vilayat Ramchandran."], ["\"Dear Ms.Aditi, Thanks for this discovery.", "I request you to continue this research and serve my country.", "I wish you all the best\""], ["This is so amazing - go OK Go!", "Those who love an elaborate set-up might like the video of The Matches 'Salty Eyes' - 